digraph Tree {
node [shape=box] ;
0 [label="attri_3 <= 0.5\nentropy = 0.984\nsamples = 14000\nvalue = [5949, 8051]"] ;
1 [label="attri_0 <= 0.5\nentropy = 0.962\nsamples = 7011\nvalue = [4305, 2706]"] ;
0 -> 1 [labeldistance=2.5, labelangle=45, headlabel="True"] ;
2 [label="attri_15 <= 0.5\nentropy = 0.783\nsamples = 3531\nvalue = [2709, 822]"] ;
1 -> 2 ;
3 [label="entropy = 0.0\nsamples = 1806\nvalue = [1806, 0]"] ;
2 -> 3 ;
4 [label="attri_16 <= 0.5\nentropy = 0.998\nsamples = 1725\nvalue = [903, 822]"] ;
2 -> 4 ;
5 [label="entropy = 0.0\nsamples = 903\nvalue = [903, 0]"] ;
4 -> 5 ;
6 [label="entropy = 0.0\nsamples = 822\nvalue = [0, 822]"] ;
4 -> 6 ;
7 [label="attri_2 <= 0.5\nentropy = 0.995\nsamples = 3480\nvalue = [1596, 1884]"] ;
1 -> 7 ;
8 [label="attri_1 <= 0.5\nentropy = 0.929\nsamples = 1813\nvalue = [1188, 625]"] ;
7 -> 8 ;
9 [label="entropy = 0.0\nsamples = 943\nvalue = [943, 0]"] ;
8 -> 9 ;
10 [label="entropy = 0.858\nsamples = 870\nvalue = [245, 625]"] ;
8 -> 10 ;
11 [label="attri_11 <= 0.5\nentropy = 0.803\nsamples = 1667\nvalue = [408, 1259]"] ;
7 -> 11 ;
12 [label="entropy = 1.0\nsamples = 825\nvalue = [408, 417]"] ;
11 -> 12 ;
13 [label="entropy = 0.0\nsamples = 842\nvalue = [0, 842]"] ;
11 -> 13 ;
14 [label="attri_20 <= 0.5\nentropy = 0.787\nsamples = 6989\nvalue = [1644, 5345]"] ;
0 -> 14 [labeldistance=2.5, labelangle=-45, headlabel="False"] ;
15 [label="attri_0 <= 0.5\nentropy = 0.953\nsamples = 3520\nvalue = [1313, 2207]"] ;
14 -> 15 ;
16 [label="attri_2 <= 0.5\nentropy = 0.986\nsamples = 1737\nvalue = [989, 748]"] ;
15 -> 16 ;
17 [label="entropy = 0.345\nsamples = 822\nvalue = [769, 53]"] ;
16 -> 17 ;
18 [label="entropy = 0.796\nsamples = 915\nvalue = [220, 695]"] ;
16 -> 18 ;
19 [label="attri_12 <= 0.5\nentropy = 0.684\nsamples = 1783\nvalue = [324, 1459]"] ;
15 -> 19 ;
20 [label="entropy = 0.901\nsamples = 848\nvalue = [269, 579]"] ;
19 -> 20 ;
21 [label="entropy = 0.323\nsamples = 935\nvalue = [55, 880]"] ;
19 -> 21 ;
22 [label="attri_0 <= 0.5\nentropy = 0.454\nsamples = 3469\nvalue = [331, 3138]"] ;
14 -> 22 ;
23 [label="entropy = 0.0\nsamples = 1740\nvalue = [0, 1740]"] ;
22 -> 23 ;
24 [label="attri_12 <= 0.5\nentropy = 0.704\nsamples = 1729\nvalue = [331, 1398]"] ;
22 -> 24 ;
25 [label="entropy = 0.891\nsamples = 869\nvalue = [268, 601]"] ;
24 -> 25 ;
26 [label="entropy = 0.378\nsamples = 860\nvalue = [63, 797]"] ;
24 -> 26 ;
}