digraph Tree {
node [shape=box] ;
0 [label="attri_3 <= 0.5\nentropy = 0.977\nsamples = 14000\nvalue = [5751, 8249]"] ;
1 [label="attri_0 <= 0.5\nentropy = 0.978\nsamples = 6966\nvalue = [4083, 2883]"] ;
0 -> 1 [labeldistance=2.5, labelangle=45, headlabel="True"] ;
2 [label="attri_15 <= 0.5\nentropy = 0.808\nsamples = 3453\nvalue = [2596, 857]"] ;
1 -> 2 ;
3 [label="entropy = 0.0\nsamples = 1748\nvalue = [1748, 0]"] ;
2 -> 3 ;
4 [label="entropy = 1.0\nsamples = 1705\nvalue = [848, 857]"] ;
2 -> 4 ;
5 [label="attri_1 <= 0.5\nentropy = 0.983\nsamples = 3513\nvalue = [1487, 2026]"] ;
1 -> 5 ;
6 [label="entropy = 0.966\nsamples = 1750\nvalue = [1064, 686]"] ;
5 -> 6 ;
7 [label="entropy = 0.795\nsamples = 1763\nvalue = [423, 1340]"] ;
5 -> 7 ;
8 [label="attri_20 <= 0.5\nentropy = 0.79\nsamples = 7034\nvalue = [1668, 5366]"] ;
0 -> 8 [labeldistance=2.5, labelangle=-45, headlabel="False"] ;
9 [label="attri_0 <= 0.5\nentropy = 0.965\nsamples = 3511\nvalue = [1368, 2143]"] ;
8 -> 9 ;
10 [label="entropy = 0.973\nsamples = 1732\nvalue = [1034, 698]"] ;
9 -> 10 ;
11 [label="entropy = 0.697\nsamples = 1779\nvalue = [334, 1445]"] ;
9 -> 11 ;
12 [label="attri_0 <= 0.5\nentropy = 0.42\nsamples = 3523\nvalue = [300, 3223]"] ;
8 -> 12 ;
13 [label="entropy = 0.0\nsamples = 1788\nvalue = [0, 1788]"] ;
12 -> 13 ;
14 [label="entropy = 0.664\nsamples = 1735\nvalue = [300, 1435]"] ;
12 -> 14 ;
}