digraph Tree {
node [shape=box] ;
0 [label="attri_3 <= 0.5\nentropy = 0.976\nsamples = 14000\nvalue = [5716, 8284]"] ;
1 [label="attri_0 <= 0.5\nentropy = 0.982\nsamples = 6943\nvalue = [4017, 2926]"] ;
0 -> 1 [labeldistance=2.5, labelangle=45, headlabel="True"] ;
2 [label="attri_15 <= 0.5\nentropy = 0.829\nsamples = 3447\nvalue = [2545, 902]"] ;
1 -> 2 ;
3 [label="entropy = 0.0\nsamples = 1736\nvalue = [1736, 0]"] ;
2 -> 3 ;
4 [label="attri_16 <= 0.5\nentropy = 0.998\nsamples = 1711\nvalue = [809, 902]"] ;
2 -> 4 ;
5 [label="entropy = 0.0\nsamples = 809\nvalue = [809, 0]"] ;
4 -> 5 ;
6 [label="entropy = 0.0\nsamples = 902\nvalue = [0, 902]"] ;
4 -> 6 ;
7 [label="attri_1 <= 0.5\nentropy = 0.982\nsamples = 3496\nvalue = [1472, 2024]"] ;
1 -> 7 ;
8 [label="attri_2 <= 0.5\nentropy = 0.965\nsamples = 1700\nvalue = [1036, 664]"] ;
7 -> 8 ;
9 [label="entropy = 0.0\nsamples = 821\nvalue = [821, 0]"] ;
8 -> 9 ;
10 [label="attri_12 <= 0.5\nentropy = 0.803\nsamples = 879\nvalue = [215, 664]"] ;
8 -> 10 ;
11 [label="entropy = 0.999\nsamples = 416\nvalue = [215, 201]"] ;
10 -> 11 ;
12 [label="entropy = 0.0\nsamples = 463\nvalue = [0, 463]"] ;
10 -> 12 ;
13 [label="attri_11 <= 0.5\nentropy = 0.8\nsamples = 1796\nvalue = [436, 1360]"] ;
7 -> 13 ;
14 [label="attri_12 <= 0.5\nentropy = 0.946\nsamples = 909\nvalue = [331, 578]"] ;
13 -> 14 ;
15 [label="entropy = 0.978\nsamples = 458\nvalue = [269, 189]"] ;
14 -> 15 ;
16 [label="entropy = 0.578\nsamples = 451\nvalue = [62, 389]"] ;
14 -> 16 ;
17 [label="attri_2 <= 0.5\nentropy = 0.525\nsamples = 887\nvalue = [105, 782]"] ;
13 -> 17 ;
18 [label="entropy = 0.804\nsamples = 428\nvalue = [105, 323]"] ;
17 -> 18 ;
19 [label="entropy = 0.0\nsamples = 459\nvalue = [0, 459]"] ;
17 -> 19 ;
20 [label="attri_20 <= 0.5\nentropy = 0.796\nsamples = 7057\nvalue = [1699, 5358]"] ;
0 -> 20 [labeldistance=2.5, labelangle=-45, headlabel="False"] ;
21 [label="attri_0 <= 0.5\nentropy = 0.968\nsamples = 3492\nvalue = [1377, 2115]"] ;
20 -> 21 ;
22 [label="attri_2 <= 0.5\nentropy = 0.974\nsamples = 1723\nvalue = [1025, 698]"] ;
21 -> 22 ;
23 [label="attri_5 <= 0.5\nentropy = 0.366\nsamples = 884\nvalue = [822, 62]"] ;
22 -> 23 ;
24 [label="entropy = 0.0\nsamples = 456\nvalue = [456, 0]"] ;
23 -> 24 ;
25 [label="entropy = 0.597\nsamples = 428\nvalue = [366, 62]"] ;
23 -> 25 ;
26 [label="attri_6 <= 0.5\nentropy = 0.798\nsamples = 839\nvalue = [203, 636]"] ;
22 -> 26 ;
27 [label="entropy = 1.0\nsamples = 407\nvalue = [203, 204]"] ;
26 -> 27 ;
28 [label="entropy = 0.0\nsamples = 432\nvalue = [0, 432]"] ;
26 -> 28 ;
29 [label="attri_11 <= 0.5\nentropy = 0.72\nsamples = 1769\nvalue = [352, 1417]"] ;
21 -> 29 ;
30 [label="attri_12 <= 0.5\nentropy = 0.917\nsamples = 891\nvalue = [296, 595]"] ;
29 -> 30 ;
31 [label="entropy = 0.982\nsamples = 460\nvalue = [266, 194]"] ;
30 -> 31 ;
32 [label="entropy = 0.364\nsamples = 431\nvalue = [30, 401]"] ;
30 -> 32 ;
33 [label="attri_14 <= 0.5\nentropy = 0.342\nsamples = 878\nvalue = [56, 822]"] ;
29 -> 33 ;
34 [label="entropy = 0.564\nsamples = 423\nvalue = [56, 367]"] ;
33 -> 34 ;
35 [label="entropy = 0.0\nsamples = 455\nvalue = [0, 455]"] ;
33 -> 35 ;
36 [label="attri_0 <= 0.5\nentropy = 0.438\nsamples = 3565\nvalue = [322, 3243]"] ;
20 -> 36 ;
37 [label="entropy = 0.0\nsamples = 1797\nvalue = [0, 1797]"] ;
36 -> 37 ;
38 [label="attri_12 <= 0.5\nentropy = 0.685\nsamples = 1768\nvalue = [322, 1446]"] ;
36 -> 38 ;
39 [label="attri_11 <= 0.5\nentropy = 0.894\nsamples = 869\nvalue = [270, 599]"] ;
38 -> 39 ;
40 [label="entropy = 0.998\nsamples = 467\nvalue = [246, 221]"] ;
39 -> 40 ;
41 [label="entropy = 0.326\nsamples = 402\nvalue = [24, 378]"] ;
39 -> 41 ;
42 [label="attri_14 <= 0.5\nentropy = 0.319\nsamples = 899\nvalue = [52, 847]"] ;
38 -> 42 ;
43 [label="entropy = 0.526\nsamples = 437\nvalue = [52, 385]"] ;
42 -> 43 ;
44 [label="entropy = 0.0\nsamples = 462\nvalue = [0, 462]"] ;
42 -> 44 ;
}