digraph Tree {
node [shape=box] ;
0 [label="attri_3 <= 0.5\ngini = 0.485\nsamples = 14000\nvalue = [5770, 8230]"] ;
1 [label="attri_0 <= 0.5\ngini = 0.485\nsamples = 7001\nvalue = [4100, 2901]"] ;
0 -> 1 [labeldistance=2.5, labelangle=45, headlabel="True"] ;
2 [label="attri_16 <= 0.5\ngini = 0.389\nsamples = 3482\nvalue = [2562, 920]"] ;
1 -> 2 ;
3 [label="gini = 0.0\nsamples = 1766\nvalue = [1766, 0]"] ;
2 -> 3 ;
4 [label="gini = 0.497\nsamples = 1716\nvalue = [796, 920]"] ;
2 -> 4 ;
5 [label="attri_2 <= 0.5\ngini = 0.492\nsamples = 3519\nvalue = [1538, 1981]"] ;
1 -> 5 ;
6 [label="gini = 0.466\nsamples = 1706\nvalue = [1074, 632]"] ;
5 -> 6 ;
7 [label="gini = 0.381\nsamples = 1813\nvalue = [464, 1349]"] ;
5 -> 7 ;
8 [label="attri_20 <= 0.5\ngini = 0.363\nsamples = 6999\nvalue = [1670, 5329]"] ;
0 -> 8 [labeldistance=2.5, labelangle=-45, headlabel="False"] ;
9 [label="attri_0 <= 0.5\ngini = 0.475\nsamples = 3526\nvalue = [1369, 2157]"] ;
8 -> 9 ;
10 [label="gini = 0.482\nsamples = 1767\nvalue = [1051, 716]"] ;
9 -> 10 ;
11 [label="gini = 0.296\nsamples = 1759\nvalue = [318, 1441]"] ;
9 -> 11 ;
12 [label="attri_0 <= 0.5\ngini = 0.158\nsamples = 3473\nvalue = [301, 3172]"] ;
8 -> 12 ;
13 [label="gini = 0.0\nsamples = 1760\nvalue = [0, 1760]"] ;
12 -> 13 ;
14 [label="gini = 0.29\nsamples = 1713\nvalue = [301, 1412]"] ;
12 -> 14 ;
}