digraph Tree {
node [shape=box] ;
0 [label="attri_3 <= 0.5\ngini = 0.487\nsamples = 7000\nvalue = [2941, 4059]"] ;
1 [label="attri_0 <= 0.5\ngini = 0.483\nsamples = 3510\nvalue = [2076, 1434]"] ;
0 -> 1 [labeldistance=2.5, labelangle=45, headlabel="True"] ;
2 [label="attri_15 <= 0.5\ngini = 0.379\nsamples = 1721\nvalue = [1284, 437]"] ;
1 -> 2 ;
3 [label="gini = 0.0\nsamples = 878\nvalue = [878, 0]"] ;
2 -> 3 ;
4 [label="attri_16 <= 0.5\ngini = 0.499\nsamples = 843\nvalue = [406, 437]"] ;
2 -> 4 ;
5 [label="gini = 0.0\nsamples = 406\nvalue = [406, 0]"] ;
4 -> 5 ;
6 [label="gini = 0.0\nsamples = 437\nvalue = [0, 437]"] ;
4 -> 6 ;
7 [label="attri_1 <= 0.5\ngini = 0.493\nsamples = 1789\nvalue = [792, 997]"] ;
1 -> 7 ;
8 [label="attri_2 <= 0.5\ngini = 0.458\nsamples = 869\nvalue = [560, 309]"] ;
7 -> 8 ;
9 [label="gini = 0.0\nsamples = 473\nvalue = [473, 0]"] ;
8 -> 9 ;
10 [label="attri_11 <= 0.5\ngini = 0.343\nsamples = 396\nvalue = [87, 309]"] ;
8 -> 10 ;
11 [label="attri_12 <= 0.5\ngini = 0.498\nsamples = 186\nvalue = [87, 99]"] ;
10 -> 11 ;
12 [label="gini = 0.0\nsamples = 87\nvalue = [87, 0]"] ;
11 -> 12 ;
13 [label="gini = 0.0\nsamples = 99\nvalue = [0, 99]"] ;
11 -> 13 ;
14 [label="gini = 0.0\nsamples = 210\nvalue = [0, 210]"] ;
10 -> 14 ;
15 [label="attri_14 <= 0.5\ngini = 0.377\nsamples = 920\nvalue = [232, 688]"] ;
7 -> 15 ;
16 [label="attri_13 <= 0.5\ngini = 0.471\nsamples = 482\nvalue = [183, 299]"] ;
15 -> 16 ;
17 [label="attri_2 <= 0.5\ngini = 0.461\nsamples = 241\nvalue = [154, 87]"] ;
16 -> 17 ;
18 [label="gini = 0.0\nsamples = 125\nvalue = [125, 0]"] ;
17 -> 18 ;
19 [label="attri_11 <= 0.5\ngini = 0.375\nsamples = 116\nvalue = [29, 87]"] ;
17 -> 19 ;
20 [label="attri_12 <= 0.5\ngini = 0.499\nsamples = 55\nvalue = [29, 26]"] ;
19 -> 20 ;
21 [label="gini = 0.0\nsamples = 29\nvalue = [29, 0]"] ;
20 -> 21 ;
22 [label="gini = 0.0\nsamples = 26\nvalue = [0, 26]"] ;
20 -> 22 ;
23 [label="gini = 0.0\nsamples = 61\nvalue = [0, 61]"] ;
19 -> 23 ;
24 [label="attri_2 <= 0.5\ngini = 0.212\nsamples = 241\nvalue = [29, 212]"] ;
16 -> 24 ;
25 [label="gini = 0.0\nsamples = 132\nvalue = [0, 132]"] ;
24 -> 25 ;
26 [label="attri_11 <= 0.5\ngini = 0.391\nsamples = 109\nvalue = [29, 80]"] ;
24 -> 26 ;
27 [label="attri_12 <= 0.5\ngini = 0.5\nsamples = 59\nvalue = [29, 30]"] ;
26 -> 27 ;
28 [label="gini = 0.0\nsamples = 29\nvalue = [29, 0]"] ;
27 -> 28 ;
29 [label="gini = 0.0\nsamples = 30\nvalue = [0, 30]"] ;
27 -> 29 ;
30 [label="gini = 0.0\nsamples = 50\nvalue = [0, 50]"] ;
26 -> 30 ;
31 [label="attri_11 <= 0.5\ngini = 0.199\nsamples = 438\nvalue = [49, 389]"] ;
15 -> 31 ;
32 [label="attri_2 <= 0.5\ngini = 0.359\nsamples = 209\nvalue = [49, 160]"] ;
31 -> 32 ;
33 [label="gini = 0.0\nsamples = 111\nvalue = [0, 111]"] ;
32 -> 33 ;
34 [label="attri_12 <= 0.5\ngini = 0.5\nsamples = 98\nvalue = [49, 49]"] ;
32 -> 34 ;
35 [label="gini = 0.0\nsamples = 49\nvalue = [49, 0]"] ;
34 -> 35 ;
36 [label="gini = 0.0\nsamples = 49\nvalue = [0, 49]"] ;
34 -> 36 ;
37 [label="gini = 0.0\nsamples = 229\nvalue = [0, 229]"] ;
31 -> 37 ;
38 [label="attri_1 <= 0.5\ngini = 0.373\nsamples = 3490\nvalue = [865, 2625]"] ;
0 -> 38 [labeldistance=2.5, labelangle=-45, headlabel="False"] ;
39 [label="attri_0 <= 0.5\ngini = 0.463\nsamples = 1823\nvalue = [663, 1160]"] ;
38 -> 39 ;
40 [label="attri_2 <= 0.5\ngini = 0.479\nsamples = 894\nvalue = [539, 355]"] ;
39 -> 40 ;
41 [label="attri_19 <= 0.5\ngini = 0.118\nsamples = 444\nvalue = [416, 28]"] ;
40 -> 41 ;
42 [label="gini = 0.0\nsamples = 243\nvalue = [243, 0]"] ;
41 -> 42 ;
43 [label="attri_5 <= 0.5\ngini = 0.24\nsamples = 201\nvalue = [173, 28]"] ;
41 -> 43 ;
44 [label="gini = 0.0\nsamples = 108\nvalue = [108, 0]"] ;
43 -> 44 ;
45 [label="attri_18 <= 0.5\ngini = 0.421\nsamples = 93\nvalue = [65, 28]"] ;
43 -> 45 ;
46 [label="gini = 0.0\nsamples = 43\nvalue = [43, 0]"] ;
45 -> 46 ;
47 [label="attri_9 <= 0.5\ngini = 0.493\nsamples = 50\nvalue = [22, 28]"] ;
45 -> 47 ;
48 [label="gini = 0.0\nsamples = 28\nvalue = [0, 28]"] ;
47 -> 48 ;
49 [label="gini = 0.0\nsamples = 22\nvalue = [22, 0]"] ;
47 -> 49 ;
50 [label="attri_6 <= 0.5\ngini = 0.397\nsamples = 450\nvalue = [123, 327]"] ;
40 -> 50 ;
51 [label="attri_7 <= 0.5\ngini = 0.497\nsamples = 229\nvalue = [123, 106]"] ;
50 -> 51 ;
52 [label="gini = 0.0\nsamples = 123\nvalue = [123, 0]"] ;
51 -> 52 ;
53 [label="gini = 0.0\nsamples = 106\nvalue = [0, 106]"] ;
51 -> 53 ;
54 [label="gini = 0.0\nsamples = 221\nvalue = [0, 221]"] ;
50 -> 54 ;
55 [label="attri_11 <= 0.5\ngini = 0.231\nsamples = 929\nvalue = [124, 805]"] ;
39 -> 55 ;
56 [label="attri_12 <= 0.5\ngini = 0.394\nsamples = 460\nvalue = [124, 336]"] ;
55 -> 56 ;
57 [label="attri_2 <= 0.5\ngini = 0.495\nsamples = 226\nvalue = [124, 102]"] ;
56 -> 57 ;
58 [label="gini = 0.0\nsamples = 102\nvalue = [0, 102]"] ;
57 -> 58 ;
59 [label="gini = 0.0\nsamples = 124\nvalue = [124, 0]"] ;
57 -> 59 ;
60 [label="gini = 0.0\nsamples = 234\nvalue = [0, 234]"] ;
56 -> 60 ;
61 [label="gini = 0.0\nsamples = 469\nvalue = [0, 469]"] ;
55 -> 61 ;
62 [label="attri_0 <= 0.5\ngini = 0.213\nsamples = 1667\nvalue = [202, 1465]"] ;
38 -> 62 ;
63 [label="gini = 0.0\nsamples = 824\nvalue = [0, 824]"] ;
62 -> 63 ;
64 [label="attri_11 <= 0.5\ngini = 0.364\nsamples = 843\nvalue = [202, 641]"] ;
62 -> 64 ;
65 [label="attri_12 <= 0.5\ngini = 0.471\nsamples = 417\nvalue = [158, 259]"] ;
64 -> 65 ;
66 [label="attri_2 <= 0.5\ngini = 0.468\nsamples = 211\nvalue = [132, 79]"] ;
65 -> 66 ;
67 [label="attri_13 <= 0.5\ngini = 0.357\nsamples = 103\nvalue = [24, 79]"] ;
66 -> 67 ;
68 [label="attri_14 <= 0.5\ngini = 0.5\nsamples = 47\nvalue = [24, 23]"] ;
67 -> 68 ;
69 [label="gini = 0.0\nsamples = 24\nvalue = [24, 0]"] ;
68 -> 69 ;
70 [label="gini = 0.0\nsamples = 23\nvalue = [0, 23]"] ;
68 -> 70 ;
71 [label="gini = 0.0\nsamples = 56\nvalue = [0, 56]"] ;
67 -> 71 ;
72 [label="gini = 0.0\nsamples = 108\nvalue = [108, 0]"] ;
66 -> 72 ;
73 [label="attri_2 <= 0.5\ngini = 0.221\nsamples = 206\nvalue = [26, 180]"] ;
65 -> 73 ;
74 [label="attri_13 <= 0.5\ngini = 0.395\nsamples = 96\nvalue = [26, 70]"] ;
73 -> 74 ;
75 [label="attri_14 <= 0.5\ngini = 0.499\nsamples = 50\nvalue = [26, 24]"] ;
74 -> 75 ;
76 [label="gini = 0.0\nsamples = 26\nvalue = [26, 0]"] ;
75 -> 76 ;
77 [label="gini = 0.0\nsamples = 24\nvalue = [0, 24]"] ;
75 -> 77 ;
78 [label="gini = 0.0\nsamples = 46\nvalue = [0, 46]"] ;
74 -> 78 ;
79 [label="gini = 0.0\nsamples = 110\nvalue = [0, 110]"] ;
73 -> 79 ;
80 [label="attri_13 <= 0.5\ngini = 0.185\nsamples = 426\nvalue = [44, 382]"] ;
64 -> 80 ;
81 [label="attri_2 <= 0.5\ngini = 0.341\nsamples = 202\nvalue = [44, 158]"] ;
80 -> 81 ;
82 [label="attri_14 <= 0.5\ngini = 0.498\nsamples = 94\nvalue = [44, 50]"] ;
81 -> 82 ;
83 [label="gini = 0.0\nsamples = 44\nvalue = [44, 0]"] ;
82 -> 83 ;
84 [label="gini = 0.0\nsamples = 50\nvalue = [0, 50]"] ;
82 -> 84 ;
85 [label="gini = 0.0\nsamples = 108\nvalue = [0, 108]"] ;
81 -> 85 ;
86 [label="gini = 0.0\nsamples = 224\nvalue = [0, 224]"] ;
80 -> 86 ;
}