digraph Tree {
node [shape=box] ;
0 [label="attri_3 <= 0.5\ngini = 0.486\nsamples = 14000\nvalue = [5848, 8152]"] ;
1 [label="attri_0 <= 0.5\ngini = 0.482\nsamples = 7049\nvalue = [4191, 2858]"] ;
0 -> 1 [labeldistance=2.5, labelangle=45, headlabel="True"] ;
2 [label="attri_16 <= 0.5\ngini = 0.38\nsamples = 3594\nvalue = [2677, 917]"] ;
1 -> 2 ;
3 [label="gini = 0.0\nsamples = 1770\nvalue = [1770, 0]"] ;
2 -> 3 ;
4 [label="gini = 0.5\nsamples = 1824\nvalue = [907, 917]"] ;
2 -> 4 ;
5 [label="attri_2 <= 0.5\ngini = 0.492\nsamples = 3455\nvalue = [1514, 1941]"] ;
1 -> 5 ;
6 [label="gini = 0.462\nsamples = 1710\nvalue = [1092, 618]"] ;
5 -> 6 ;
7 [label="gini = 0.367\nsamples = 1745\nvalue = [422, 1323]"] ;
5 -> 7 ;
8 [label="attri_20 <= 0.5\ngini = 0.363\nsamples = 6951\nvalue = [1657, 5294]"] ;
0 -> 8 [labeldistance=2.5, labelangle=-45, headlabel="False"] ;
9 [label="attri_0 <= 0.5\ngini = 0.474\nsamples = 3442\nvalue = [1331, 2111]"] ;
8 -> 9 ;
10 [label="gini = 0.481\nsamples = 1694\nvalue = [1012, 682]"] ;
9 -> 10 ;
11 [label="gini = 0.298\nsamples = 1748\nvalue = [319, 1429]"] ;
9 -> 11 ;
12 [label="attri_0 <= 0.5\ngini = 0.169\nsamples = 3509\nvalue = [326, 3183]"] ;
8 -> 12 ;
13 [label="gini = 0.0\nsamples = 1746\nvalue = [0, 1746]"] ;
12 -> 13 ;
14 [label="gini = 0.301\nsamples = 1763\nvalue = [326, 1437]"] ;
12 -> 14 ;
}