digraph Tree {
node [shape=box] ;
0 [label="personality <= 0.5\ngini = 0.474\nsamples = 7000\nvalue = [4305, 2695]"] ;
1 [label="face <= 0.5\ngini = 0.462\nsamples = 3528\nvalue = [1276, 2252]"] ;
0 -> 1 [labeldistance=2.5, labelangle=45, headlabel="True"] ;
2 [label="gini = 0.0\nsamples = 1815\nvalue = [0, 1815]"] ;
1 -> 2 ;
3 [label="height <= 0.5\ngini = 0.38\nsamples = 1713\nvalue = [1276, 437]"] ;
1 -> 3 ;
4 [label="rich <= 0.5\ngini = 0.5\nsamples = 851\nvalue = [414, 437]"] ;
3 -> 4 ;
5 [label="gini = 0.0\nsamples = 437\nvalue = [0, 437]"] ;
4 -> 5 ;
6 [label="gini = 0.0\nsamples = 414\nvalue = [414, 0]"] ;
4 -> 6 ;
7 [label="gini = 0.0\nsamples = 862\nvalue = [862, 0]"] ;
3 -> 7 ;
8 [label="rich <= 0.5\ngini = 0.223\nsamples = 3472\nvalue = [3029, 443]"] ;
0 -> 8 [labeldistance=2.5, labelangle=-45, headlabel="False"] ;
9 [label="face <= 0.5\ngini = 0.377\nsamples = 1757\nvalue = [1314, 443]"] ;
8 -> 9 ;
10 [label="social <= 0.5\ngini = 0.5\nsamples = 870\nvalue = [427, 443]"] ;
9 -> 10 ;
11 [label="gini = 0.369\nsamples = 446\nvalue = [109, 337]"] ;
10 -> 11 ;
12 [label="gini = 0.375\nsamples = 424\nvalue = [318, 106]"] ;
10 -> 12 ;
13 [label="gini = 0.0\nsamples = 887\nvalue = [887, 0]"] ;
9 -> 13 ;
14 [label="gini = 0.0\nsamples = 1715\nvalue = [1715, 0]"] ;
8 -> 14 ;
}