digraph Tree {
node [shape=box] ;
0 [label="attri_3 <= 0.5\ngini = 0.484\nsamples = 7000\nvalue = [2874, 4126]"] ;
1 [label="attri_0 <= 0.5\ngini = 0.486\nsamples = 3521\nvalue = [2057, 1464]"] ;
0 -> 1 [labeldistance=2.5, labelangle=45, headlabel="True"] ;
2 [label="attri_15 <= 0.5\ngini = 0.38\nsamples = 1731\nvalue = [1289, 442]"] ;
1 -> 2 ;
3 [label="gini = 0.0\nsamples = 889\nvalue = [889, 0]"] ;
2 -> 3 ;
4 [label="attri_16 <= 0.5\ngini = 0.499\nsamples = 842\nvalue = [400, 442]"] ;
2 -> 4 ;
5 [label="gini = 0.0\nsamples = 400\nvalue = [400, 0]"] ;
4 -> 5 ;
6 [label="gini = 0.0\nsamples = 442\nvalue = [0, 442]"] ;
4 -> 6 ;
7 [label="attri_1 <= 0.5\ngini = 0.49\nsamples = 1790\nvalue = [768, 1022]"] ;
1 -> 7 ;
8 [label="attri_2 <= 0.5\ngini = 0.46\nsamples = 873\nvalue = [560, 313]"] ;
7 -> 8 ;
9 [label="gini = 0.0\nsamples = 464\nvalue = [464, 0]"] ;
8 -> 9 ;
10 [label="attri_11 <= 0.5\ngini = 0.359\nsamples = 409\nvalue = [96, 313]"] ;
8 -> 10 ;
11 [label="gini = 0.498\nsamples = 205\nvalue = [96, 109]"] ;
10 -> 11 ;
12 [label="gini = 0.0\nsamples = 204\nvalue = [0, 204]"] ;
10 -> 12 ;
13 [label="attri_12 <= 0.5\ngini = 0.351\nsamples = 917\nvalue = [208, 709]"] ;
7 -> 13 ;
14 [label="attri_11 <= 0.5\ngini = 0.451\nsamples = 445\nvalue = [153, 292]"] ;
13 -> 14 ;
15 [label="gini = 0.485\nsamples = 218\nvalue = [128, 90]"] ;
14 -> 15 ;
16 [label="gini = 0.196\nsamples = 227\nvalue = [25, 202]"] ;
14 -> 16 ;
17 [label="attri_2 <= 0.5\ngini = 0.206\nsamples = 472\nvalue = [55, 417]"] ;
13 -> 17 ;
18 [label="gini = 0.363\nsamples = 231\nvalue = [55, 176]"] ;
17 -> 18 ;
19 [label="gini = 0.0\nsamples = 241\nvalue = [0, 241]"] ;
17 -> 19 ;
20 [label="attri_1 <= 0.5\ngini = 0.359\nsamples = 3479\nvalue = [817, 2662]"] ;
0 -> 20 [labeldistance=2.5, labelangle=-45, headlabel="False"] ;
21 [label="attri_0 <= 0.5\ngini = 0.45\nsamples = 1724\nvalue = [589, 1135]"] ;
20 -> 21 ;
22 [label="attri_2 <= 0.5\ngini = 0.493\nsamples = 864\nvalue = [482, 382]"] ;
21 -> 22 ;
23 [label="attri_5 <= 0.5\ngini = 0.168\nsamples = 420\nvalue = [381, 39]"] ;
22 -> 23 ;
24 [label="gini = 0.0\nsamples = 216\nvalue = [216, 0]"] ;
23 -> 24 ;
25 [label="gini = 0.309\nsamples = 204\nvalue = [165, 39]"] ;
23 -> 25 ;
26 [label="attri_7 <= 0.5\ngini = 0.351\nsamples = 444\nvalue = [101, 343]"] ;
22 -> 26 ;
27 [label="gini = 0.5\nsamples = 204\nvalue = [101, 103]"] ;
26 -> 27 ;
28 [label="gini = 0.0\nsamples = 240\nvalue = [0, 240]"] ;
26 -> 28 ;
29 [label="attri_12 <= 0.5\ngini = 0.218\nsamples = 860\nvalue = [107, 753]"] ;
21 -> 29 ;
30 [label="attri_11 <= 0.5\ngini = 0.376\nsamples = 427\nvalue = [107, 320]"] ;
29 -> 30 ;
31 [label="gini = 0.499\nsamples = 221\nvalue = [107, 114]"] ;
30 -> 31 ;
32 [label="gini = 0.0\nsamples = 206\nvalue = [0, 206]"] ;
30 -> 32 ;
33 [label="gini = 0.0\nsamples = 433\nvalue = [0, 433]"] ;
29 -> 33 ;
34 [label="attri_0 <= 0.5\ngini = 0.226\nsamples = 1755\nvalue = [228, 1527]"] ;
20 -> 34 ;
35 [label="gini = 0.0\nsamples = 905\nvalue = [0, 905]"] ;
34 -> 35 ;
36 [label="attri_12 <= 0.5\ngini = 0.393\nsamples = 850\nvalue = [228, 622]"] ;
34 -> 36 ;
37 [label="attri_11 <= 0.5\ngini = 0.486\nsamples = 441\nvalue = [184, 257]"] ;
36 -> 37 ;
38 [label="gini = 0.438\nsamples = 232\nvalue = [157, 75]"] ;
37 -> 38 ;
39 [label="gini = 0.225\nsamples = 209\nvalue = [27, 182]"] ;
37 -> 39 ;
40 [label="attri_14 <= 0.5\ngini = 0.192\nsamples = 409\nvalue = [44, 365]"] ;
36 -> 40 ;
41 [label="gini = 0.348\nsamples = 196\nvalue = [44, 152]"] ;
40 -> 41 ;
42 [label="gini = 0.0\nsamples = 213\nvalue = [0, 213]"] ;
40 -> 42 ;
}