digraph Tree {
node [shape=box] ;
0 [label="attri_3 <= 0.5\ngini = 0.484\nsamples = 14000\nvalue = [5751, 8249]"] ;
1 [label="attri_0 <= 0.5\ngini = 0.485\nsamples = 6966\nvalue = [4083, 2883]"] ;
0 -> 1 [labeldistance=2.5, labelangle=45, headlabel="True"] ;
2 [label="attri_15 <= 0.5\ngini = 0.373\nsamples = 3453\nvalue = [2596, 857]"] ;
1 -> 2 ;
3 [label="gini = 0.0\nsamples = 1748\nvalue = [1748, 0]"] ;
2 -> 3 ;
4 [label="gini = 0.5\nsamples = 1705\nvalue = [848, 857]"] ;
2 -> 4 ;
5 [label="attri_1 <= 0.5\ngini = 0.488\nsamples = 3513\nvalue = [1487, 2026]"] ;
1 -> 5 ;
6 [label="gini = 0.477\nsamples = 1750\nvalue = [1064, 686]"] ;
5 -> 6 ;
7 [label="gini = 0.365\nsamples = 1763\nvalue = [423, 1340]"] ;
5 -> 7 ;
8 [label="attri_20 <= 0.5\ngini = 0.362\nsamples = 7034\nvalue = [1668, 5366]"] ;
0 -> 8 [labeldistance=2.5, labelangle=-45, headlabel="False"] ;
9 [label="attri_0 <= 0.5\ngini = 0.476\nsamples = 3511\nvalue = [1368, 2143]"] ;
8 -> 9 ;
10 [label="gini = 0.481\nsamples = 1732\nvalue = [1034, 698]"] ;
9 -> 10 ;
11 [label="gini = 0.305\nsamples = 1779\nvalue = [334, 1445]"] ;
9 -> 11 ;
12 [label="attri_0 <= 0.5\ngini = 0.156\nsamples = 3523\nvalue = [300, 3223]"] ;
8 -> 12 ;
13 [label="gini = 0.0\nsamples = 1788\nvalue = [0, 1788]"] ;
12 -> 13 ;
14 [label="gini = 0.286\nsamples = 1735\nvalue = [300, 1435]"] ;
12 -> 14 ;
}