digraph Tree {
node [shape=box] ;
0 [label="attri_3 <= 0.5\ngini = 0.486\nsamples = 14000\nvalue = [5838, 8162]"] ;
1 [label="attri_0 <= 0.5\ngini = 0.481\nsamples = 7008\nvalue = [4188, 2820]"] ;
0 -> 1 [labeldistance=2.5, labelangle=45, headlabel="True"] ;
2 [label="attri_15 <= 0.5\ngini = 0.376\nsamples = 3468\nvalue = [2599, 869]"] ;
1 -> 2 ;
3 [label="gini = 0.0\nsamples = 1745\nvalue = [1745, 0]"] ;
2 -> 3 ;
4 [label="attri_16 <= 0.5\ngini = 0.5\nsamples = 1723\nvalue = [854, 869]"] ;
2 -> 4 ;
5 [label="gini = 0.0\nsamples = 854\nvalue = [854, 0]"] ;
4 -> 5 ;
6 [label="gini = 0.0\nsamples = 869\nvalue = [0, 869]"] ;
4 -> 6 ;
7 [label="attri_2 <= 0.5\ngini = 0.495\nsamples = 3540\nvalue = [1589, 1951]"] ;
1 -> 7 ;
8 [label="attri_1 <= 0.5\ngini = 0.463\nsamples = 1753\nvalue = [1114, 639]"] ;
7 -> 8 ;
9 [label="gini = 0.0\nsamples = 920\nvalue = [920, 0]"] ;
8 -> 9 ;
10 [label="attri_13 <= 0.5\ngini = 0.357\nsamples = 833\nvalue = [194, 639]"] ;
8 -> 10 ;
11 [label="gini = 0.5\nsamples = 385\nvalue = [194, 191]"] ;
10 -> 11 ;
12 [label="gini = 0.0\nsamples = 448\nvalue = [0, 448]"] ;
10 -> 12 ;
13 [label="attri_11 <= 0.5\ngini = 0.39\nsamples = 1787\nvalue = [475, 1312]"] ;
7 -> 13 ;
14 [label="attri_12 <= 0.5\ngini = 0.499\nsamples = 917\nvalue = [475, 442]"] ;
13 -> 14 ;
15 [label="gini = 0.0\nsamples = 475\nvalue = [475, 0]"] ;
14 -> 15 ;
16 [label="gini = 0.0\nsamples = 442\nvalue = [0, 442]"] ;
14 -> 16 ;
17 [label="gini = 0.0\nsamples = 870\nvalue = [0, 870]"] ;
13 -> 17 ;
18 [label="attri_20 <= 0.5\ngini = 0.361\nsamples = 6992\nvalue = [1650, 5342]"] ;
0 -> 18 [labeldistance=2.5, labelangle=-45, headlabel="False"] ;
19 [label="attri_0 <= 0.5\ngini = 0.471\nsamples = 3472\nvalue = [1317, 2155]"] ;
18 -> 19 ;
20 [label="attri_2 <= 0.5\ngini = 0.485\nsamples = 1685\nvalue = [988, 697]"] ;
19 -> 20 ;
21 [label="attri_9 <= 0.5\ngini = 0.125\nsamples = 836\nvalue = [780, 56]"] ;
20 -> 21 ;
22 [label="gini = 0.239\nsamples = 404\nvalue = [348, 56]"] ;
21 -> 22 ;
23 [label="gini = 0.0\nsamples = 432\nvalue = [432, 0]"] ;
21 -> 23 ;
24 [label="attri_6 <= 0.5\ngini = 0.37\nsamples = 849\nvalue = [208, 641]"] ;
20 -> 24 ;
25 [label="gini = 0.5\nsamples = 406\nvalue = [208, 198]"] ;
24 -> 25 ;
26 [label="gini = 0.0\nsamples = 443\nvalue = [0, 443]"] ;
24 -> 26 ;
27 [label="attri_11 <= 0.5\ngini = 0.3\nsamples = 1787\nvalue = [329, 1458]"] ;
19 -> 27 ;
28 [label="attri_12 <= 0.5\ngini = 0.428\nsamples = 889\nvalue = [276, 613]"] ;
27 -> 28 ;
29 [label="gini = 0.491\nsamples = 450\nvalue = [256, 194]"] ;
28 -> 29 ;
30 [label="gini = 0.087\nsamples = 439\nvalue = [20, 419]"] ;
28 -> 30 ;
31 [label="attri_1 <= 0.5\ngini = 0.111\nsamples = 898\nvalue = [53, 845]"] ;
27 -> 31 ;
32 [label="gini = 0.0\nsamples = 456\nvalue = [0, 456]"] ;
31 -> 32 ;
33 [label="gini = 0.211\nsamples = 442\nvalue = [53, 389]"] ;
31 -> 33 ;
34 [label="attri_0 <= 0.5\ngini = 0.171\nsamples = 3520\nvalue = [333, 3187]"] ;
18 -> 34 ;
35 [label="gini = 0.0\nsamples = 1712\nvalue = [0, 1712]"] ;
34 -> 35 ;
36 [label="attri_11 <= 0.5\ngini = 0.301\nsamples = 1808\nvalue = [333, 1475]"] ;
34 -> 36 ;
37 [label="attri_12 <= 0.5\ngini = 0.433\nsamples = 904\nvalue = [286, 618]"] ;
36 -> 37 ;
38 [label="gini = 0.489\nsamples = 452\nvalue = [259, 193]"] ;
37 -> 38 ;
39 [label="gini = 0.112\nsamples = 452\nvalue = [27, 425]"] ;
37 -> 39 ;
40 [label="attri_2 <= 0.5\ngini = 0.099\nsamples = 904\nvalue = [47, 857]"] ;
36 -> 40 ;
41 [label="gini = 0.192\nsamples = 436\nvalue = [47, 389]"] ;
40 -> 41 ;
42 [label="gini = 0.0\nsamples = 468\nvalue = [0, 468]"] ;
40 -> 42 ;
}