digraph Tree {
node [shape=box] ;
0 [label="attri_3 <= 0.5\ngini = 0.488\nsamples = 14000\nvalue = [5912, 8088]"] ;
1 [label="attri_0 <= 0.5\ngini = 0.48\nsamples = 6937\nvalue = [4170, 2767]"] ;
0 -> 1 [labeldistance=2.5, labelangle=45, headlabel="True"] ;
2 [label="attri_15 <= 0.5\ngini = 0.375\nsamples = 3482\nvalue = [2611, 871]"] ;
1 -> 2 ;
3 [label="gini = 0.0\nsamples = 1743\nvalue = [1743, 0]"] ;
2 -> 3 ;
4 [label="attri_16 <= 0.5\ngini = 0.5\nsamples = 1739\nvalue = [868, 871]"] ;
2 -> 4 ;
5 [label="gini = 0.0\nsamples = 868\nvalue = [868, 0]"] ;
4 -> 5 ;
6 [label="gini = 0.0\nsamples = 871\nvalue = [0, 871]"] ;
4 -> 6 ;
7 [label="attri_2 <= 0.5\ngini = 0.495\nsamples = 3455\nvalue = [1559, 1896]"] ;
1 -> 7 ;
8 [label="attri_1 <= 0.5\ngini = 0.464\nsamples = 1749\nvalue = [1108, 641]"] ;
7 -> 8 ;
9 [label="gini = 0.0\nsamples = 874\nvalue = [874, 0]"] ;
8 -> 9 ;
10 [label="attri_14 <= 0.5\ngini = 0.392\nsamples = 875\nvalue = [234, 641]"] ;
8 -> 10 ;
11 [label="attri_13 <= 0.5\ngini = 0.497\nsamples = 437\nvalue = [234, 203]"] ;
10 -> 11 ;
12 [label="gini = 0.0\nsamples = 234\nvalue = [234, 0]"] ;
11 -> 12 ;
13 [label="gini = 0.0\nsamples = 203\nvalue = [0, 203]"] ;
11 -> 13 ;
14 [label="gini = 0.0\nsamples = 438\nvalue = [0, 438]"] ;
10 -> 14 ;
15 [label="attri_12 <= 0.5\ngini = 0.389\nsamples = 1706\nvalue = [451, 1255]"] ;
7 -> 15 ;
16 [label="attri_11 <= 0.5\ngini = 0.499\nsamples = 860\nvalue = [451, 409]"] ;
15 -> 16 ;
17 [label="gini = 0.0\nsamples = 451\nvalue = [451, 0]"] ;
16 -> 17 ;
18 [label="gini = 0.0\nsamples = 409\nvalue = [0, 409]"] ;
16 -> 18 ;
19 [label="gini = 0.0\nsamples = 846\nvalue = [0, 846]"] ;
15 -> 19 ;
20 [label="attri_20 <= 0.5\ngini = 0.372\nsamples = 7063\nvalue = [1742, 5321]"] ;
0 -> 20 [labeldistance=2.5, labelangle=-45, headlabel="False"] ;
21 [label="attri_0 <= 0.5\ngini = 0.48\nsamples = 3576\nvalue = [1431, 2145]"] ;
20 -> 21 ;
22 [label="attri_2 <= 0.5\ngini = 0.481\nsamples = 1850\nvalue = [1104, 746]"] ;
21 -> 22 ;
23 [label="attri_5 <= 0.5\ngini = 0.114\nsamples = 943\nvalue = [886, 57]"] ;
22 -> 23 ;
24 [label="gini = 0.0\nsamples = 483\nvalue = [483, 0]"] ;
23 -> 24 ;
25 [label="attri_19 <= 0.5\ngini = 0.217\nsamples = 460\nvalue = [403, 57]"] ;
23 -> 25 ;
26 [label="gini = 0.0\nsamples = 241\nvalue = [241, 0]"] ;
25 -> 26 ;
27 [label="attri_18 <= 0.5\ngini = 0.385\nsamples = 219\nvalue = [162, 57]"] ;
25 -> 27 ;
28 [label="gini = 0.0\nsamples = 112\nvalue = [112, 0]"] ;
27 -> 28 ;
29 [label="attri_9 <= 0.5\ngini = 0.498\nsamples = 107\nvalue = [50, 57]"] ;
27 -> 29 ;
30 [label="gini = 0.0\nsamples = 57\nvalue = [0, 57]"] ;
29 -> 30 ;
31 [label="gini = 0.0\nsamples = 50\nvalue = [50, 0]"] ;
29 -> 31 ;
32 [label="attri_7 <= 0.5\ngini = 0.365\nsamples = 907\nvalue = [218, 689]"] ;
22 -> 32 ;
33 [label="attri_6 <= 0.5\ngini = 0.499\nsamples = 416\nvalue = [218, 198]"] ;
32 -> 33 ;
34 [label="gini = 0.0\nsamples = 218\nvalue = [218, 0]"] ;
33 -> 34 ;
35 [label="gini = 0.0\nsamples = 198\nvalue = [0, 198]"] ;
33 -> 35 ;
36 [label="gini = 0.0\nsamples = 491\nvalue = [0, 491]"] ;
32 -> 36 ;
37 [label="attri_11 <= 0.5\ngini = 0.307\nsamples = 1726\nvalue = [327, 1399]"] ;
21 -> 37 ;
38 [label="attri_12 <= 0.5\ngini = 0.446\nsamples = 853\nvalue = [286, 567]"] ;
37 -> 38 ;
39 [label="attri_2 <= 0.5\ngini = 0.486\nsamples = 447\nvalue = [261, 186]"] ;
38 -> 39 ;
40 [label="attri_13 <= 0.5\ngini = 0.261\nsamples = 220\nvalue = [34, 186]"] ;
39 -> 40 ;
41 [label="attri_14 <= 0.5\ngini = 0.447\nsamples = 101\nvalue = [34, 67]"] ;
40 -> 41 ;
42 [label="attri_1 <= 0.5\ngini = 0.466\nsamples = 54\nvalue = [34, 20]"] ;
41 -> 42 ;
43 [label="gini = 0.0\nsamples = 20\nvalue = [0, 20]"] ;
42 -> 43 ;
44 [label="gini = 0.0\nsamples = 34\nvalue = [34, 0]"] ;
42 -> 44 ;
45 [label="gini = 0.0\nsamples = 47\nvalue = [0, 47]"] ;
41 -> 45 ;
46 [label="gini = 0.0\nsamples = 119\nvalue = [0, 119]"] ;
40 -> 46 ;
47 [label="gini = 0.0\nsamples = 227\nvalue = [227, 0]"] ;
39 -> 47 ;
48 [label="attri_1 <= 0.5\ngini = 0.116\nsamples = 406\nvalue = [25, 381]"] ;
38 -> 48 ;
49 [label="gini = 0.0\nsamples = 205\nvalue = [0, 205]"] ;
48 -> 49 ;
50 [label="attri_13 <= 0.5\ngini = 0.218\nsamples = 201\nvalue = [25, 176]"] ;
48 -> 50 ;
51 [label="attri_2 <= 0.5\ngini = 0.404\nsamples = 89\nvalue = [25, 64]"] ;
50 -> 51 ;
52 [label="attri_14 <= 0.5\ngini = 0.498\nsamples = 47\nvalue = [25, 22]"] ;
51 -> 52 ;
53 [label="gini = 0.0\nsamples = 25\nvalue = [25, 0]"] ;
52 -> 53 ;
54 [label="gini = 0.0\nsamples = 22\nvalue = [0, 22]"] ;
52 -> 54 ;
55 [label="gini = 0.0\nsamples = 42\nvalue = [0, 42]"] ;
51 -> 55 ;
56 [label="gini = 0.0\nsamples = 112\nvalue = [0, 112]"] ;
50 -> 56 ;
57 [label="attri_1 <= 0.5\ngini = 0.09\nsamples = 873\nvalue = [41, 832]"] ;
37 -> 57 ;
58 [label="gini = 0.0\nsamples = 468\nvalue = [0, 468]"] ;
57 -> 58 ;
59 [label="attri_2 <= 0.5\ngini = 0.182\nsamples = 405\nvalue = [41, 364]"] ;
57 -> 59 ;
60 [label="attri_13 <= 0.5\ngini = 0.335\nsamples = 193\nvalue = [41, 152]"] ;
59 -> 60 ;
61 [label="attri_14 <= 0.5\ngini = 0.498\nsamples = 88\nvalue = [41, 47]"] ;
60 -> 61 ;
62 [label="gini = 0.0\nsamples = 41\nvalue = [41, 0]"] ;
61 -> 62 ;
63 [label="gini = 0.0\nsamples = 47\nvalue = [0, 47]"] ;
61 -> 63 ;
64 [label="gini = 0.0\nsamples = 105\nvalue = [0, 105]"] ;
60 -> 64 ;
65 [label="gini = 0.0\nsamples = 212\nvalue = [0, 212]"] ;
59 -> 65 ;
66 [label="attri_0 <= 0.5\ngini = 0.162\nsamples = 3487\nvalue = [311, 3176]"] ;
20 -> 66 ;
67 [label="gini = 0.0\nsamples = 1771\nvalue = [0, 1771]"] ;
66 -> 67 ;
68 [label="attri_11 <= 0.5\ngini = 0.297\nsamples = 1716\nvalue = [311, 1405]"] ;
66 -> 68 ;
69 [label="attri_12 <= 0.5\ngini = 0.43\nsamples = 870\nvalue = [272, 598]"] ;
68 -> 69 ;
70 [label="attri_2 <= 0.5\ngini = 0.496\nsamples = 449\nvalue = [244, 205]"] ;
69 -> 70 ;
71 [label="attri_1 <= 0.5\ngini = 0.244\nsamples = 239\nvalue = [34, 205]"] ;
70 -> 71 ;
72 [label="gini = 0.0\nsamples = 123\nvalue = [0, 123]"] ;
71 -> 72 ;
73 [label="attri_13 <= 0.5\ngini = 0.414\nsamples = 116\nvalue = [34, 82]"] ;
71 -> 73 ;
74 [label="attri_14 <= 0.5\ngini = 0.485\nsamples = 58\nvalue = [34, 24]"] ;
73 -> 74 ;
75 [label="gini = 0.0\nsamples = 34\nvalue = [34, 0]"] ;
74 -> 75 ;
76 [label="gini = 0.0\nsamples = 24\nvalue = [0, 24]"] ;
74 -> 76 ;
77 [label="gini = 0.0\nsamples = 58\nvalue = [0, 58]"] ;
73 -> 77 ;
78 [label="gini = 0.0\nsamples = 210\nvalue = [210, 0]"] ;
70 -> 78 ;
79 [label="attri_2 <= 0.5\ngini = 0.124\nsamples = 421\nvalue = [28, 393]"] ;
69 -> 79 ;
80 [label="attri_1 <= 0.5\ngini = 0.235\nsamples = 206\nvalue = [28, 178]"] ;
79 -> 80 ;
81 [label="gini = 0.0\nsamples = 100\nvalue = [0, 100]"] ;
80 -> 81 ;
82 [label="attri_13 <= 0.5\ngini = 0.389\nsamples = 106\nvalue = [28, 78]"] ;
80 -> 82 ;
83 [label="attri_14 <= 0.5\ngini = 0.49\nsamples = 49\nvalue = [28, 21]"] ;
82 -> 83 ;
84 [label="gini = 0.0\nsamples = 28\nvalue = [28, 0]"] ;
83 -> 84 ;
85 [label="gini = 0.0\nsamples = 21\nvalue = [0, 21]"] ;
83 -> 85 ;
86 [label="gini = 0.0\nsamples = 57\nvalue = [0, 57]"] ;
82 -> 86 ;
87 [label="gini = 0.0\nsamples = 215\nvalue = [0, 215]"] ;
79 -> 87 ;
88 [label="attri_2 <= 0.5\ngini = 0.088\nsamples = 846\nvalue = [39, 807]"] ;
68 -> 88 ;
89 [label="attri_14 <= 0.5\ngini = 0.168\nsamples = 420\nvalue = [39, 381]"] ;
88 -> 89 ;
90 [label="attri_1 <= 0.5\ngini = 0.324\nsamples = 192\nvalue = [39, 153]"] ;
89 -> 90 ;
91 [label="gini = 0.0\nsamples = 102\nvalue = [0, 102]"] ;
90 -> 91 ;
92 [label="attri_13 <= 0.5\ngini = 0.491\nsamples = 90\nvalue = [39, 51]"] ;
90 -> 92 ;
93 [label="gini = 0.0\nsamples = 39\nvalue = [39, 0]"] ;
92 -> 93 ;
94 [label="gini = 0.0\nsamples = 51\nvalue = [0, 51]"] ;
92 -> 94 ;
95 [label="gini = 0.0\nsamples = 228\nvalue = [0, 228]"] ;
89 -> 95 ;
96 [label="gini = 0.0\nsamples = 426\nvalue = [0, 426]"] ;
88 -> 96 ;
}