digraph Tree {
node [shape=box] ;
0 [label="attri_3 <= 0.5\ngini = 0.489\nsamples = 7000\nvalue = [2985, 4015]"] ;
1 [label="attri_0 <= 0.5\ngini = 0.483\nsamples = 3538\nvalue = [2091, 1447]"] ;
0 -> 1 [labeldistance=2.5, labelangle=45, headlabel="True"] ;
2 [label="attri_16 <= 0.5\ngini = 0.375\nsamples = 1787\nvalue = [1341, 446]"] ;
1 -> 2 ;
3 [label="gini = 0.0\nsamples = 887\nvalue = [887, 0]"] ;
2 -> 3 ;
4 [label="attri_15 <= 0.5\ngini = 0.5\nsamples = 900\nvalue = [454, 446]"] ;
2 -> 4 ;
5 [label="gini = 0.0\nsamples = 454\nvalue = [454, 0]"] ;
4 -> 5 ;
6 [label="gini = 0.0\nsamples = 446\nvalue = [0, 446]"] ;
4 -> 6 ;
7 [label="attri_1 <= 0.5\ngini = 0.49\nsamples = 1751\nvalue = [750, 1001]"] ;
1 -> 7 ;
8 [label="attri_2 <= 0.5\ngini = 0.478\nsamples = 866\nvalue = [523, 343]"] ;
7 -> 8 ;
9 [label="gini = 0.0\nsamples = 414\nvalue = [414, 0]"] ;
8 -> 9 ;
10 [label="attri_11 <= 0.5\ngini = 0.366\nsamples = 452\nvalue = [109, 343]"] ;
8 -> 10 ;
11 [label="gini = 0.5\nsamples = 221\nvalue = [109, 112]"] ;
10 -> 11 ;
12 [label="gini = 0.0\nsamples = 231\nvalue = [0, 231]"] ;
10 -> 12 ;
13 [label="attri_14 <= 0.5\ngini = 0.381\nsamples = 885\nvalue = [227, 658]"] ;
7 -> 13 ;
14 [label="attri_13 <= 0.5\ngini = 0.479\nsamples = 441\nvalue = [175, 266]"] ;
13 -> 14 ;
15 [label="gini = 0.431\nsamples = 220\nvalue = [151, 69]"] ;
14 -> 15 ;
16 [label="gini = 0.194\nsamples = 221\nvalue = [24, 197]"] ;
14 -> 16 ;
17 [label="attri_12 <= 0.5\ngini = 0.207\nsamples = 444\nvalue = [52, 392]"] ;
13 -> 17 ;
18 [label="gini = 0.37\nsamples = 212\nvalue = [52, 160]"] ;
17 -> 18 ;
19 [label="gini = 0.0\nsamples = 232\nvalue = [0, 232]"] ;
17 -> 19 ;
20 [label="attri_1 <= 0.5\ngini = 0.383\nsamples = 3462\nvalue = [894, 2568]"] ;
0 -> 20 [labeldistance=2.5, labelangle=-45, headlabel="False"] ;
21 [label="attri_0 <= 0.5\ngini = 0.468\nsamples = 1739\nvalue = [651, 1088]"] ;
20 -> 21 ;
22 [label="attri_2 <= 0.5\ngini = 0.469\nsamples = 859\nvalue = [536, 323]"] ;
21 -> 22 ;
23 [label="attri_19 <= 0.5\ngini = 0.105\nsamples = 448\nvalue = [423, 25]"] ;
22 -> 23 ;
24 [label="gini = 0.0\nsamples = 242\nvalue = [242, 0]"] ;
23 -> 24 ;
25 [label="gini = 0.213\nsamples = 206\nvalue = [181, 25]"] ;
23 -> 25 ;
26 [label="attri_7 <= 0.5\ngini = 0.399\nsamples = 411\nvalue = [113, 298]"] ;
22 -> 26 ;
27 [label="gini = 0.494\nsamples = 204\nvalue = [113, 91]"] ;
26 -> 27 ;
28 [label="gini = 0.0\nsamples = 207\nvalue = [0, 207]"] ;
26 -> 28 ;
29 [label="attri_11 <= 0.5\ngini = 0.227\nsamples = 880\nvalue = [115, 765]"] ;
21 -> 29 ;
30 [label="attri_2 <= 0.5\ngini = 0.384\nsamples = 443\nvalue = [115, 328]"] ;
29 -> 30 ;
31 [label="gini = 0.0\nsamples = 216\nvalue = [0, 216]"] ;
30 -> 31 ;
32 [label="gini = 0.5\nsamples = 227\nvalue = [115, 112]"] ;
30 -> 32 ;
33 [label="gini = 0.0\nsamples = 437\nvalue = [0, 437]"] ;
29 -> 33 ;
34 [label="attri_0 <= 0.5\ngini = 0.242\nsamples = 1723\nvalue = [243, 1480]"] ;
20 -> 34 ;
35 [label="gini = 0.0\nsamples = 852\nvalue = [0, 852]"] ;
34 -> 35 ;
36 [label="attri_13 <= 0.5\ngini = 0.402\nsamples = 871\nvalue = [243, 628]"] ;
34 -> 36 ;
37 [label="attri_14 <= 0.5\ngini = 0.482\nsamples = 452\nvalue = [183, 269]"] ;
36 -> 37 ;
38 [label="gini = 0.471\nsamples = 250\nvalue = [155, 95]"] ;
37 -> 38 ;
39 [label="gini = 0.239\nsamples = 202\nvalue = [28, 174]"] ;
37 -> 39 ;
40 [label="attri_11 <= 0.5\ngini = 0.245\nsamples = 419\nvalue = [60, 359]"] ;
36 -> 40 ;
41 [label="gini = 0.418\nsamples = 202\nvalue = [60, 142]"] ;
40 -> 41 ;
42 [label="gini = 0.0\nsamples = 217\nvalue = [0, 217]"] ;
40 -> 42 ;
}