digraph Tree {
node [shape=box] ;
0 [label="attri_3 <= 0.5\ngini = 0.487\nsamples = 14000\nvalue = [5853, 8147]"] ;
1 [label="attri_0 <= 0.5\ngini = 0.483\nsamples = 7060\nvalue = [4184, 2876]"] ;
0 -> 1 [labeldistance=2.5, labelangle=45, headlabel="True"] ;
2 [label="attri_16 <= 0.5\ngini = 0.374\nsamples = 3555\nvalue = [2670, 885]"] ;
1 -> 2 ;
3 [label="gini = 0.0\nsamples = 1787\nvalue = [1787, 0]"] ;
2 -> 3 ;
4 [label="attri_15 <= 0.5\ngini = 0.5\nsamples = 1768\nvalue = [883, 885]"] ;
2 -> 4 ;
5 [label="gini = 0.0\nsamples = 883\nvalue = [883, 0]"] ;
4 -> 5 ;
6 [label="gini = 0.0\nsamples = 885\nvalue = [0, 885]"] ;
4 -> 6 ;
7 [label="attri_1 <= 0.5\ngini = 0.491\nsamples = 3505\nvalue = [1514, 1991]"] ;
1 -> 7 ;
8 [label="attri_2 <= 0.5\ngini = 0.467\nsamples = 1731\nvalue = [1089, 642]"] ;
7 -> 8 ;
9 [label="gini = 0.0\nsamples = 872\nvalue = [872, 0]"] ;
8 -> 9 ;
10 [label="attri_12 <= 0.5\ngini = 0.378\nsamples = 859\nvalue = [217, 642]"] ;
8 -> 10 ;
11 [label="attri_11 <= 0.5\ngini = 0.5\nsamples = 422\nvalue = [217, 205]"] ;
10 -> 11 ;
12 [label="gini = 0.0\nsamples = 217\nvalue = [217, 0]"] ;
11 -> 12 ;
13 [label="gini = 0.0\nsamples = 205\nvalue = [0, 205]"] ;
11 -> 13 ;
14 [label="gini = 0.0\nsamples = 437\nvalue = [0, 437]"] ;
10 -> 14 ;
15 [label="attri_12 <= 0.5\ngini = 0.364\nsamples = 1774\nvalue = [425, 1349]"] ;
7 -> 15 ;
16 [label="attri_11 <= 0.5\ngini = 0.466\nsamples = 853\nvalue = [316, 537]"] ;
15 -> 16 ;
17 [label="attri_2 <= 0.5\ngini = 0.474\nsamples = 432\nvalue = [265, 167]"] ;
16 -> 17 ;
18 [label="gini = 0.351\nsamples = 216\nvalue = [49, 167]"] ;
17 -> 18 ;
19 [label="gini = 0.0\nsamples = 216\nvalue = [216, 0]"] ;
17 -> 19 ;
20 [label="attri_13 <= 0.5\ngini = 0.213\nsamples = 421\nvalue = [51, 370]"] ;
16 -> 20 ;
21 [label="gini = 0.386\nsamples = 195\nvalue = [51, 144]"] ;
20 -> 21 ;
22 [label="gini = 0.0\nsamples = 226\nvalue = [0, 226]"] ;
20 -> 22 ;
23 [label="attri_2 <= 0.5\ngini = 0.209\nsamples = 921\nvalue = [109, 812]"] ;
15 -> 23 ;
24 [label="attri_13 <= 0.5\ngini = 0.369\nsamples = 446\nvalue = [109, 337]"] ;
23 -> 24 ;
25 [label="gini = 0.5\nsamples = 217\nvalue = [109, 108]"] ;
24 -> 25 ;
26 [label="gini = 0.0\nsamples = 229\nvalue = [0, 229]"] ;
24 -> 26 ;
27 [label="gini = 0.0\nsamples = 475\nvalue = [0, 475]"] ;
23 -> 27 ;
28 [label="attri_20 <= 0.5\ngini = 0.365\nsamples = 6940\nvalue = [1669, 5271]"] ;
0 -> 28 [labeldistance=2.5, labelangle=-45, headlabel="False"] ;
29 [label="attri_0 <= 0.5\ngini = 0.475\nsamples = 3492\nvalue = [1357, 2135]"] ;
28 -> 29 ;
30 [label="attri_2 <= 0.5\ngini = 0.488\nsamples = 1786\nvalue = [1034, 752]"] ;
29 -> 30 ;
31 [label="attri_9 <= 0.5\ngini = 0.133\nsamples = 868\nvalue = [806, 62]"] ;
30 -> 31 ;
32 [label="attri_18 <= 0.5\ngini = 0.249\nsamples = 426\nvalue = [364, 62]"] ;
31 -> 32 ;
33 [label="gini = 0.0\nsamples = 209\nvalue = [209, 0]"] ;
32 -> 33 ;
34 [label="gini = 0.408\nsamples = 217\nvalue = [155, 62]"] ;
32 -> 34 ;
35 [label="gini = 0.0\nsamples = 442\nvalue = [442, 0]"] ;
31 -> 35 ;
36 [label="attri_6 <= 0.5\ngini = 0.373\nsamples = 918\nvalue = [228, 690]"] ;
30 -> 36 ;
37 [label="attri_7 <= 0.5\ngini = 0.5\nsamples = 458\nvalue = [228, 230]"] ;
36 -> 37 ;
38 [label="gini = 0.0\nsamples = 228\nvalue = [228, 0]"] ;
37 -> 38 ;
39 [label="gini = 0.0\nsamples = 230\nvalue = [0, 230]"] ;
37 -> 39 ;
40 [label="gini = 0.0\nsamples = 460\nvalue = [0, 460]"] ;
36 -> 40 ;
41 [label="attri_12 <= 0.5\ngini = 0.307\nsamples = 1706\nvalue = [323, 1383]"] ;
29 -> 41 ;
42 [label="attri_11 <= 0.5\ngini = 0.436\nsamples = 871\nvalue = [280, 591]"] ;
41 -> 42 ;
43 [label="attri_2 <= 0.5\ngini = 0.489\nsamples = 450\nvalue = [258, 192]"] ;
42 -> 43 ;
44 [label="gini = 0.191\nsamples = 215\nvalue = [23, 192]"] ;
43 -> 44 ;
45 [label="gini = 0.0\nsamples = 235\nvalue = [235, 0]"] ;
43 -> 45 ;
46 [label="attri_13 <= 0.5\ngini = 0.099\nsamples = 421\nvalue = [22, 399]"] ;
42 -> 46 ;
47 [label="gini = 0.188\nsamples = 209\nvalue = [22, 187]"] ;
46 -> 47 ;
48 [label="gini = 0.0\nsamples = 212\nvalue = [0, 212]"] ;
46 -> 48 ;
49 [label="attri_13 <= 0.5\ngini = 0.098\nsamples = 835\nvalue = [43, 792]"] ;
41 -> 49 ;
50 [label="attri_2 <= 0.5\ngini = 0.194\nsamples = 395\nvalue = [43, 352]"] ;
49 -> 50 ;
51 [label="gini = 0.349\nsamples = 191\nvalue = [43, 148]"] ;
50 -> 51 ;
52 [label="gini = 0.0\nsamples = 204\nvalue = [0, 204]"] ;
50 -> 52 ;
53 [label="gini = 0.0\nsamples = 440\nvalue = [0, 440]"] ;
49 -> 53 ;
54 [label="attri_0 <= 0.5\ngini = 0.165\nsamples = 3448\nvalue = [312, 3136]"] ;
28 -> 54 ;
55 [label="gini = 0.0\nsamples = 1723\nvalue = [0, 1723]"] ;
54 -> 55 ;
56 [label="attri_12 <= 0.5\ngini = 0.296\nsamples = 1725\nvalue = [312, 1413]"] ;
54 -> 56 ;
57 [label="attri_11 <= 0.5\ngini = 0.428\nsamples = 889\nvalue = [276, 613]"] ;
56 -> 57 ;
58 [label="attri_2 <= 0.5\ngini = 0.497\nsamples = 448\nvalue = [242, 206]"] ;
57 -> 58 ;
59 [label="gini = 0.233\nsamples = 238\nvalue = [32, 206]"] ;
58 -> 59 ;
60 [label="gini = 0.0\nsamples = 210\nvalue = [210, 0]"] ;
58 -> 60 ;
61 [label="attri_14 <= 0.5\ngini = 0.142\nsamples = 441\nvalue = [34, 407]"] ;
57 -> 61 ;
62 [label="gini = 0.258\nsamples = 223\nvalue = [34, 189]"] ;
61 -> 62 ;
63 [label="gini = 0.0\nsamples = 218\nvalue = [0, 218]"] ;
61 -> 63 ;
64 [label="attri_13 <= 0.5\ngini = 0.082\nsamples = 836\nvalue = [36, 800]"] ;
56 -> 64 ;
65 [label="attri_1 <= 0.5\ngini = 0.17\nsamples = 383\nvalue = [36, 347]"] ;
64 -> 65 ;
66 [label="gini = 0.0\nsamples = 204\nvalue = [0, 204]"] ;
65 -> 66 ;
67 [label="gini = 0.321\nsamples = 179\nvalue = [36, 143]"] ;
65 -> 67 ;
68 [label="gini = 0.0\nsamples = 453\nvalue = [0, 453]"] ;
64 -> 68 ;
}