digraph Tree {
node [shape=box] ;
0 [label="attri_3 <= 0.5\ngini = 0.486\nsamples = 7000\nvalue = [2909, 4091]"] ;
1 [label="attri_0 <= 0.5\ngini = 0.483\nsamples = 3531\nvalue = [2094, 1437]"] ;
0 -> 1 [labeldistance=2.5, labelangle=45, headlabel="True"] ;
2 [label="attri_16 <= 0.5\ngini = 0.391\nsamples = 1792\nvalue = [1315, 477]"] ;
1 -> 2 ;
3 [label="gini = 0.0\nsamples = 875\nvalue = [875, 0]"] ;
2 -> 3 ;
4 [label="attri_15 <= 0.5\ngini = 0.499\nsamples = 917\nvalue = [440, 477]"] ;
2 -> 4 ;
5 [label="gini = 0.0\nsamples = 440\nvalue = [440, 0]"] ;
4 -> 5 ;
6 [label="gini = 0.0\nsamples = 477\nvalue = [0, 477]"] ;
4 -> 6 ;
7 [label="attri_1 <= 0.5\ngini = 0.495\nsamples = 1739\nvalue = [779, 960]"] ;
1 -> 7 ;
8 [label="attri_2 <= 0.5\ngini = 0.45\nsamples = 891\nvalue = [586, 305]"] ;
7 -> 8 ;
9 [label="gini = 0.0\nsamples = 469\nvalue = [469, 0]"] ;
8 -> 9 ;
10 [label="gini = 0.401\nsamples = 422\nvalue = [117, 305]"] ;
8 -> 10 ;
11 [label="attri_13 <= 0.5\ngini = 0.352\nsamples = 848\nvalue = [193, 655]"] ;
7 -> 11 ;
12 [label="gini = 0.47\nsamples = 400\nvalue = [151, 249]"] ;
11 -> 12 ;
13 [label="gini = 0.17\nsamples = 448\nvalue = [42, 406]"] ;
11 -> 13 ;
14 [label="attri_1 <= 0.5\ngini = 0.359\nsamples = 3469\nvalue = [815, 2654]"] ;
0 -> 14 [labeldistance=2.5, labelangle=-45, headlabel="False"] ;
15 [label="attri_0 <= 0.5\ngini = 0.461\nsamples = 1710\nvalue = [615, 1095]"] ;
14 -> 15 ;
16 [label="attri_2 <= 0.5\ngini = 0.483\nsamples = 846\nvalue = [500, 346]"] ;
15 -> 16 ;
17 [label="gini = 0.134\nsamples = 416\nvalue = [386, 30]"] ;
16 -> 17 ;
18 [label="gini = 0.39\nsamples = 430\nvalue = [114, 316]"] ;
16 -> 18 ;
19 [label="attri_12 <= 0.5\ngini = 0.231\nsamples = 864\nvalue = [115, 749]"] ;
15 -> 19 ;
20 [label="gini = 0.386\nsamples = 441\nvalue = [115, 326]"] ;
19 -> 20 ;
21 [label="gini = 0.0\nsamples = 423\nvalue = [0, 423]"] ;
19 -> 21 ;
22 [label="attri_0 <= 0.5\ngini = 0.202\nsamples = 1759\nvalue = [200, 1559]"] ;
14 -> 22 ;
23 [label="gini = 0.0\nsamples = 878\nvalue = [0, 878]"] ;
22 -> 23 ;
24 [label="attri_11 <= 0.5\ngini = 0.351\nsamples = 881\nvalue = [200, 681]"] ;
22 -> 24 ;
25 [label="gini = 0.463\nsamples = 439\nvalue = [160, 279]"] ;
24 -> 25 ;
26 [label="gini = 0.165\nsamples = 442\nvalue = [40, 402]"] ;
24 -> 26 ;
}