digraph Tree {
node [shape=box] ;
0 [label="attri_3 <= 0.5\ngini = 0.486\nsamples = 14000\nvalue = [5820, 8180]"] ;
1 [label="attri_0 <= 0.5\ngini = 0.483\nsamples = 6928\nvalue = [4110, 2818]"] ;
0 -> 1 [labeldistance=2.5, labelangle=45, headlabel="True"] ;
2 [label="attri_16 <= 0.5\ngini = 0.372\nsamples = 3445\nvalue = [2595, 850]"] ;
1 -> 2 ;
3 [label="gini = 0.0\nsamples = 1737\nvalue = [1737, 0]"] ;
2 -> 3 ;
4 [label="attri_15 <= 0.5\ngini = 0.5\nsamples = 1708\nvalue = [858, 850]"] ;
2 -> 4 ;
5 [label="gini = 0.0\nsamples = 858\nvalue = [858, 0]"] ;
4 -> 5 ;
6 [label="gini = 0.0\nsamples = 850\nvalue = [0, 850]"] ;
4 -> 6 ;
7 [label="attri_1 <= 0.5\ngini = 0.492\nsamples = 3483\nvalue = [1515, 1968]"] ;
1 -> 7 ;
8 [label="attri_2 <= 0.5\ngini = 0.47\nsamples = 1732\nvalue = [1079, 653]"] ;
7 -> 8 ;
9 [label="gini = 0.0\nsamples = 874\nvalue = [874, 0]"] ;
8 -> 9 ;
10 [label="gini = 0.364\nsamples = 858\nvalue = [205, 653]"] ;
8 -> 10 ;
11 [label="attri_11 <= 0.5\ngini = 0.374\nsamples = 1751\nvalue = [436, 1315]"] ;
7 -> 11 ;
12 [label="gini = 0.475\nsamples = 886\nvalue = [343, 543]"] ;
11 -> 12 ;
13 [label="gini = 0.192\nsamples = 865\nvalue = [93, 772]"] ;
11 -> 13 ;
14 [label="attri_20 <= 0.5\ngini = 0.367\nsamples = 7072\nvalue = [1710, 5362]"] ;
0 -> 14 [labeldistance=2.5, labelangle=-45, headlabel="False"] ;
15 [label="attri_0 <= 0.5\ngini = 0.473\nsamples = 3582\nvalue = [1378, 2204]"] ;
14 -> 15 ;
16 [label="attri_2 <= 0.5\ngini = 0.483\nsamples = 1763\nvalue = [1045, 718]"] ;
15 -> 16 ;
17 [label="gini = 0.127\nsamples = 879\nvalue = [819, 60]"] ;
16 -> 17 ;
18 [label="gini = 0.381\nsamples = 884\nvalue = [226, 658]"] ;
16 -> 18 ;
19 [label="attri_12 <= 0.5\ngini = 0.299\nsamples = 1819\nvalue = [333, 1486]"] ;
15 -> 19 ;
20 [label="gini = 0.43\nsamples = 920\nvalue = [288, 632]"] ;
19 -> 20 ;
21 [label="gini = 0.095\nsamples = 899\nvalue = [45, 854]"] ;
19 -> 21 ;
22 [label="attri_0 <= 0.5\ngini = 0.172\nsamples = 3490\nvalue = [332, 3158]"] ;
14 -> 22 ;
23 [label="gini = 0.0\nsamples = 1752\nvalue = [0, 1752]"] ;
22 -> 23 ;
24 [label="attri_12 <= 0.5\ngini = 0.309\nsamples = 1738\nvalue = [332, 1406]"] ;
22 -> 24 ;
25 [label="gini = 0.436\nsamples = 901\nvalue = [289, 612]"] ;
24 -> 25 ;
26 [label="gini = 0.097\nsamples = 837\nvalue = [43, 794]"] ;
24 -> 26 ;
}